{
    "0.bias": [
        -0.03963086009025574,
        0.0910256952047348,
        -0.0020101815462112427,
        -0.08989699184894562,
        -0.16949303448200226,
        0.03615589439868927,
        0.1579056829214096,
        -0.15789170563220978,
        -0.19905328750610352,
        0.05919618904590607,
        0.1364356428384781,
        0.0803128033876419,
        -0.06197214126586914,
        0.09766308963298798,
        0.018301159143447876,
        -0.05370953679084778,
        0.1712520867586136,
        0.10709048807621002,
        0.1116430014371872,
        0.13106979429721832
    ],
    "0.weight": [
        [
            [
                [
                    0.1914769858121872,
                    -0.018937915563583374,
                    0.004050776362419128,
                    0.04579916596412659,
                    0.18776072561740875
                ],
                [
                    0.016434311866760254,
                    0.1417737752199173,
                    -0.1088295504450798,
                    -0.08961045742034912,
                    -0.06175565719604492
                ],
                [
                    -0.12891429662704468,
                    -0.1021677777171135,
                    -0.038297608494758606,
                    -0.07900331169366837,
                    -0.17515778541564941
                ],
                [
                    0.06536822021007538,
                    -0.17672514915466309,
                    -0.05441081523895264,
                    0.13486693799495697,
                    0.08355607092380524
                ],
                [
                    0.011114001274108887,
                    -0.09569797664880753,
                    -0.1224365234375,
                    -0.04591722786426544,
                    0.07645149528980255
                ]
            ]
        ],
        [
            [
                [
                    -0.07857666164636612,
                    0.05140642821788788,
                    0.09923999011516571,
                    0.020197942852973938,
                    -0.02563627064228058
                ],
                [
                    -0.14350385963916779,
                    0.03843267261981964,
                    -0.13792279362678528,
                    -0.1338399052619934,
                    -0.1658667027950287
                ],
                [
                    0.13201691210269928,
                    -0.09981732815504074,
                    -0.10567007213830948,
                    0.0748990923166275,
                    -0.10784807056188583
                ],
                [
                    0.08245010673999786,
                    0.14813263714313507,
                    -0.020636633038520813,
                    0.038436055183410645,
                    -0.04368528723716736
                ],
                [
                    0.10477243363857269,
                    0.13567949831485748,
                    0.10985781252384186,
                    -0.14073236286640167,
                    -0.15466861426830292
                ]
            ]
        ],
        [
            [
                [
                    -0.14733317494392395,
                    0.10175742208957672,
                    -0.08406179398298264,
                    -0.15219633281230927,
                    0.012990787625312805
                ],
                [
                    0.08368794620037079,
                    0.16518135368824005,
                    -0.0117359459400177,
                    0.19212953746318817,
                    -0.17298534512519836
                ],
                [
                    0.027179047465324402,
                    -0.1805533468723297,
                    0.061843469738960266,
                    -0.11804194748401642,
                    0.18827320635318756
                ],
                [
                    -0.18373064696788788,
                    -0.029814913868904114,
                    -0.18467223644256592,
                    0.13292129337787628,
                    0.1887660175561905
                ],
                [
                    -0.12715941667556763,
                    -0.1220679059624672,
                    -0.03130920231342316,
                    0.09109298884868622,
                    0.03400106728076935
                ]
            ]
        ],
        [
            [
                [
                    -0.002775043249130249,
                    0.15244056284427643,
                    -0.019349485635757446,
                    -0.016247987747192383,
                    0.07281912863254547
                ],
                [
                    -0.11835398524999619,
                    -0.179535374045372,
                    -0.1792093962430954,
                    0.17846150696277618,
                    0.01673722267150879
                ],
                [
                    0.0816262811422348,
                    0.11390005052089691,
                    -0.15483537316322327,
                    -0.09218068420886993,
                    0.11871828138828278
                ],
                [
                    -0.11431942135095596,
                    0.19517256319522858,
                    -0.11678171157836914,
                    0.021053194999694824,
                    -0.04650585353374481
                ],
                [
                    -0.11356856673955917,
                    -0.1593254804611206,
                    0.1425427943468094,
                    0.04722917079925537,
                    -0.1740332692861557
                ]
            ]
        ],
        [
            [
                [
                    0.002434253692626953,
                    -0.12382826954126358,
                    -0.10592661052942276,
                    -0.16674776375293732,
                    0.13234896957874298
                ],
                [
                    0.11439357697963715,
                    0.08442027866840363,
                    0.19569946825504303,
                    0.06676234304904938,
                    0.13786081969738007
                ],
                [
                    -0.10837793350219727,
                    0.04964211583137512,
                    -0.16253475844860077,
                    0.13881735503673553,
                    0.11782611906528473
                ],
                [
                    -0.14898920059204102,
                    0.1352870911359787,
                    0.11643953621387482,
                    -0.11673765629529953,
                    -0.07223959267139435
                ],
                [
                    0.06893117725849152,
                    -0.03951394557952881,
                    -0.1310100257396698,
                    -0.006199568510055542,
                    -0.10793302208185196
                ]
            ]
        ],
        [
            [
                [
                    -0.13677439093589783,
                    0.02039913833141327,
                    0.03135082125663757,
                    0.0727234035730362,
                    -0.1489168107509613
                ],
                [
                    -0.19134023785591125,
                    -0.10215549916028976,
                    0.13084663450717926,
                    0.17736922204494476,
                    0.003699466586112976
                ],
                [
                    -0.1746474802494049,
                    -0.017598867416381836,
                    0.028212115168571472,
                    -0.09602079540491104,
                    0.05104584991931915
                ],
                [
                    -0.13715171813964844,
                    0.1731085330247879,
                    -0.07973235100507736,
                    0.17923091351985931,
                    -0.1680210381746292
                ],
                [
                    0.06911028921604156,
                    -0.0024797171354293823,
                    -0.04587700963020325,
                    -0.10614638775587082,
                    0.0073248594999313354
                ]
            ]
        ],
        [
            [
                [
                    0.07595865428447723,
                    0.06770311295986176,
                    -0.1449391096830368,
                    -0.18039670586585999,
                    0.043754786252975464
                ],
                [
                    0.1796930879354477,
                    -0.13662534952163696,
                    0.09056608378887177,
                    0.020588606595993042,
                    -0.0878743901848793
                ],
                [
                    0.019868046045303345,
                    -0.0891958698630333,
                    0.18150092661380768,
                    0.15651442110538483,
                    0.03621380031108856
                ],
                [
                    0.17757011950016022,
                    -0.02073034644126892,
                    -0.034203097224235535,
                    0.17750801146030426,
                    0.11710993945598602
                ],
                [
                    0.19186170399188995,
                    0.07243914902210236,
                    -0.04416601359844208,
                    0.09681840240955353,
                    0.19422610104084015
                ]
            ]
        ],
        [
            [
                [
                    -0.18202915787696838,
                    0.0037004053592681885,
                    0.13116730749607086,
                    -0.15936198830604553,
                    0.06416763365268707
                ],
                [
                    0.1600855439901352,
                    0.18112953007221222,
                    -0.18376974761486053,
                    0.10812415182590485,
                    0.13670827448368073
                ],
                [
                    0.0842934101819992,
                    -0.1567726880311966,
                    -0.009476736187934875,
                    0.0082780122756958,
                    0.18249265849590302
                ],
                [
                    0.1458805650472641,
                    -0.19639244675636292,
                    -0.055529311299324036,
                    -0.11808154731988907,
                    -0.09988401085138321
                ],
                [
                    -0.15742170810699463,
                    -0.09662804752588272,
                    0.1055309921503067,
                    0.12134359776973724,
                    0.08717818558216095
                ]
            ]
        ],
        [
            [
                [
                    0.09765709936618805,
                    0.06633247435092926,
                    -0.04493646323680878,
                    -0.18788734078407288,
                    -0.05775117874145508
                ],
                [
                    -0.05915828049182892,
                    -0.18201763927936554,
                    -0.11471708118915558,
                    0.0037831515073776245,
                    0.04760809242725372
                ],
                [
                    0.1382303088903427,
                    0.18083490431308746,
                    0.12815524637699127,
                    -0.09577035903930664,
                    -0.008125394582748413
                ],
                [
                    0.06570841372013092,
                    -0.03752779960632324,
                    0.1590769737958908,
                    0.027318507432937622,
                    0.033256322145462036
                ],
                [
                    0.04901877045631409,
                    0.09713397920131683,
                    0.06155969202518463,
                    0.06720568239688873,
                    -0.12671077251434326
                ]
            ]
        ],
        [
            [
                [
                    0.04653739929199219,
                    -0.19673161208629608,
                    0.09202907979488373,
                    -0.18009011447429657,
                    0.06946735084056854
                ],
                [
                    0.18813325464725494,
                    0.1195446103811264,
                    -0.024952322244644165,
                    0.12331415712833405,
                    -0.18765895068645477
                ],
                [
                    0.18160714209079742,
                    -0.01306907832622528,
                    0.12062998116016388,
                    0.03081686794757843,
                    0.17079322040081024
                ],
                [
                    0.08715187013149261,
                    -0.12474930286407471,
                    0.09334532916545868,
                    -0.08493795245885849,
                    -0.020331233739852905
                ],
                [
                    -0.008810728788375854,
                    -0.18458886444568634,
                    0.07383663952350616,
                    0.007780864834785461,
                    0.1518477350473404
                ]
            ]
        ],
        [
            [
                [
                    0.1897195726633072,
                    0.08664111793041229,
                    -0.05044817924499512,
                    0.1858563870191574,
                    0.050605371594429016
                ],
                [
                    -0.1879912167787552,
                    -0.0012623965740203857,
                    -0.10347454994916916,
                    0.10118450224399567,
                    -0.1963689774274826
                ],
                [
                    -0.08233767002820969,
                    0.0555046945810318,
                    0.039707109332084656,
                    0.17702911794185638,
                    0.18991278111934662
                ],
                [
                    -0.09488218277692795,
                    -0.1999964714050293,
                    -0.1894414871931076,
                    -0.1005525141954422,
                    -0.150639608502388
                ],
                [
                    -0.05106325447559357,
                    0.12398852407932281,
                    -0.1589623987674713,
                    -0.09334850311279297,
                    0.021384045481681824
                ]
            ]
        ],
        [
            [
                [
                    -0.08934295177459717,
                    -0.16434650123119354,
                    0.10708673298358917,
                    -0.04008212685585022,
                    0.10151799023151398
                ],
                [
                    0.18590568006038666,
                    -0.06879746913909912,
                    0.19583775103092194,
                    -0.18224279582500458,
                    -0.19106793403625488
                ],
                [
                    -0.11374194920063019,
                    -0.16140954196453094,
                    0.03815719485282898,
                    0.07791019976139069,
                    0.01129750907421112
                ],
                [
                    0.03954112529754639,
                    -0.15698274970054626,
                    -0.1676928550004959,
                    -0.0986531525850296,
                    0.1648806780576706
                ],
                [
                    -0.1204114705324173,
                    -0.1531134396791458,
                    -0.15769311785697937,
                    -0.19234071671962738,
                    -0.07614071667194366
                ]
            ]
        ],
        [
            [
                [
                    -0.027987077832221985,
                    0.09734763205051422,
                    0.013921529054641724,
                    -0.1862238496541977,
                    0.023348882794380188
                ],
                [
                    -0.13883335888385773,
                    -0.010338813066482544,
                    -0.021472543478012085,
                    -0.16387026011943817,
                    -0.0898514986038208
                ],
                [
                    -0.16341125965118408,
                    -0.01905098557472229,
                    -0.007287174463272095,
                    -0.058590859174728394,
                    0.03951886296272278
                ],
                [
                    -0.1595248281955719,
                    -0.03703944385051727,
                    0.028368860483169556,
                    0.13200117647647858,
                    0.1244116872549057
                ],
                [
                    -0.03529389202594757,
                    0.1066620796918869,
                    -0.09784712642431259,
                    0.010056465864181519,
                    -0.19810850918293
                ]
            ]
        ],
        [
            [
                [
                    0.05301643908023834,
                    0.07498173415660858,
                    0.0943448394536972,
                    -0.12329971790313721,
                    0.01148088276386261
                ],
                [
                    -0.1124078780412674,
                    0.1206909567117691,
                    0.1619192510843277,
                    -0.05120626091957092,
                    0.0887226015329361
                ],
                [
                    -0.15798120200634003,
                    0.16644270718097687,
                    -0.12047304958105087,
                    -0.16116896271705627,
                    0.15569747984409332
                ],
                [
                    0.1375122219324112,
                    0.022005409002304077,
                    0.17347751557826996,
                    -0.02485811710357666,
                    -0.18631647527217865
                ],
                [
                    0.15865139663219452,
                    0.1635204702615738,
                    0.07266892492771149,
                    0.1995861679315567,
                    0.12838377058506012
                ]
            ]
        ],
        [
            [
                [
                    0.08510719239711761,
                    -0.04028172791004181,
                    -0.0045738667249679565,
                    0.019585341215133667,
                    -0.18737421929836273
                ],
                [
                    -0.08125138282775879,
                    0.12041421234607697,
                    0.11585886776447296,
                    0.03127317130565643,
                    0.042888566851615906
                ],
                [
                    0.14797551929950714,
                    0.117210254073143,
                    -0.15915104746818542,
                    -0.18497705459594727,
                    -0.18516238033771515
                ],
                [
                    -0.1358892321586609,
                    0.1852518767118454,
                    -0.005866333842277527,
                    -0.05339351296424866,
                    -0.10433313995599747
                ],
                [
                    0.027654364705085754,
                    0.025490492582321167,
                    -0.0917225107550621,
                    0.020032957196235657,
                    -0.010532766580581665
                ]
            ]
        ],
        [
            [
                [
                    0.0474444180727005,
                    -0.013403981924057007,
                    -0.0003457069396972656,
                    0.014995098114013672,
                    -0.1340433955192566
                ],
                [
                    -0.15437182784080505,
                    0.03288206458091736,
                    -0.08095734566450119,
                    -0.13153380155563354,
                    -0.012195825576782227
                ],
                [
                    -0.1657838523387909,
                    0.1219453364610672,
                    0.12701834738254547,
                    0.15019820630550385,
                    -0.1026984453201294
                ],
                [
                    0.033194586634635925,
                    -0.15730328857898712,
                    -0.11132776737213135,
                    0.0648200660943985,
                    0.17939315736293793
                ],
                [
                    -0.026473000645637512,
                    -0.18574629724025726,
                    0.12992192804813385,
                    -0.02437572181224823,
                    -0.18044710159301758
                ]
            ]
        ],
        [
            [
                [
                    0.05151189863681793,
                    0.050209298729896545,
                    0.05638746917247772,
                    0.0695696622133255,
                    -0.04312343895435333
                ],
                [
                    -0.04299764335155487,
                    -0.17507031559944153,
                    0.14575739204883575,
                    0.05544199049472809,
                    -0.17864929139614105
                ],
                [
                    -0.014523297548294067,
                    -0.06274953484535217,
                    0.11150695383548737,
                    -0.07203193008899689,
                    0.05409283936023712
                ],
                [
                    -0.052660733461380005,
                    0.11950214207172394,
                    0.1312396377325058,
                    -0.03376321494579315,
                    -0.12608221173286438
                ],
                [
                    -0.10686328262090683,
                    -0.07501652091741562,
                    -0.19429610669612885,
                    -0.09019320458173752,
                    -0.010964065790176392
                ]
            ]
        ],
        [
            [
                [
                    -0.009490326046943665,
                    0.050145223736763,
                    0.19866277277469635,
                    0.028568387031555176,
                    -0.1349436640739441
                ],
                [
                    -0.18969741463661194,
                    -0.06812882423400879,
                    -0.16107754409313202,
                    -0.10891685634851456,
                    0.00513024628162384
                ],
                [
                    0.047829270362854004,
                    0.18023093044757843,
                    -0.1714405119419098,
                    0.024810791015625,
                    -0.06181475520133972
                ],
                [
                    0.008835718035697937,
                    -0.162554532289505,
                    -0.05986544489860535,
                    -0.12215431034564972,
                    0.12291698157787323
                ],
                [
                    -0.04663956165313721,
                    -0.016445711255073547,
                    -0.15774469077587128,
                    0.021790295839309692,
                    0.14673437178134918
                ]
            ]
        ],
        [
            [
                [
                    0.019652456045150757,
                    0.16329284012317657,
                    -0.015882641077041626,
                    -0.16086244583129883,
                    0.17901040613651276
                ],
                [
                    0.02090093493461609,
                    0.10765163600444794,
                    0.10147620737552643,
                    0.10346783697605133,
                    -0.17960284650325775
                ],
                [
                    -0.03905335068702698,
                    0.05330352485179901,
                    0.10898806154727936,
                    -0.02788272500038147,
                    -0.08191609382629395
                ],
                [
                    -0.18973596394062042,
                    0.07984314858913422,
                    -0.047576904296875,
                    0.16785378754138947,
                    -0.04768006503582001
                ],
                [
                    -0.1533244550228119,
                    0.187532439827919,
                    -0.13025100529193878,
                    -0.04583720862865448,
                    -0.017433255910873413
                ]
            ]
        ],
        [
            [
                [
                    0.05293361842632294,
                    -0.1064189001917839,
                    -0.19481196999549866,
                    0.0391564816236496,
                    0.1302097588777542
                ],
                [
                    -0.09037985652685165,
                    0.13522492349147797,
                    -0.03803703188896179,
                    -0.16644223034381866,
                    0.19448386132717133
                ],
                [
                    0.12896724045276642,
                    -0.013932034373283386,
                    -0.16066260635852814,
                    0.1905682235956192,
                    0.1412755399942398
                ],
                [
                    -0.06538410484790802,
                    0.0788518637418747,
                    -0.07362647354602814,
                    -0.10018625110387802,
                    0.03725314140319824
                ],
                [
                    -0.019837096333503723,
                    -0.05731908977031708,
                    0.12322570383548737,
                    -0.19041617214679718,
                    0.10634712874889374
                ]
            ]
        ]
    ],
    "2.bias": [
        -0.023196624591946602,
        -0.004107680171728134,
        0.0033636465668678284,
        -0.0342584103345871,
        0.029520925134420395,
        -0.042692914605140686,
        -0.03031707927584648,
        -0.012029200792312622,
        -0.0145167987793684,
        0.04239166900515556,
        -0.0345584973692894,
        0.04335147514939308,
        -0.005244702100753784,
        -0.014507872983813286,
        0.010608233511447906,
        -0.03427811712026596,
        -0.00793037936091423,
        0.038002800196409225,
        0.019860271364450455,
        0.025062333792448044,
        0.03003527596592903,
        0.009320557117462158,
        0.009233616292476654,
        0.03689362481236458,
        0.008930489420890808,
        0.008061844855546951,
        0.03855975344777107,
        0.030546966940164566,
        0.024626273661851883,
        0.04419007524847984,
        -0.04341164976358414,
        0.00921810045838356,
        0.016088105738162994,
        -0.010970145463943481,
        0.028719548135995865,
        0.010943692177534103,
        0.025347400456666946,
        0.0034751445055007935,
        0.009271439164876938,
        0.027859624475240707,
        -0.02394491620361805,
        -0.02813456393778324,
        0.014789007604122162,
        0.008879654109477997,
        0.023775842040777206,
        0.0023261085152626038,
        -0.03717489540576935,
        -0.04435007646679878,
        0.013767257332801819,
        0.009012226015329361,
        0.026838671416044235,
        -0.040567267686128616,
        0.015493553131818771,
        0.04177564010024071,
        -0.03841027989983559,
        0.018476497381925583,
        0.0020003803074359894,
        0.022442426532506943,
        -0.01912257820367813,
        0.023763161152601242,
        0.03551860526204109,
        -0.03125511482357979,
        0.01720760017633438,
        0.019336026161909103
    ],
    "2.weight": [
        [
            [
                [
                    -0.03619254380464554,
                    0.03957941010594368,
                    -0.027082525193691254,
                    -0.04290775582194328,
                    -0.01271190494298935
                ],
                [
                    0.007637079805135727,
                    0.019792061299085617,
                    0.03175835683941841,
                    0.006970386952161789,
                    -0.03848043829202652
                ],
                [
                    0.03480513021349907,
                    0.005242843180894852,
                    0.02009657397866249,
                    -0.011850263923406601,
                    -0.03661792725324631
                ],
                [
                    0.0442439429461956,
                    -0.008505463600158691,
                    -0.0314248763024807,
                    0.024494674056768417,
                    -0.006984613835811615
                ],
                [
                    0.043690893799066544,
                    0.04289841279387474,
                    0.01032676175236702,
                    0.02908063307404518,
                    0.011661097407341003
                ]
            ],
            [
                [
                    -0.040313709527254105,
                    -0.03068920224905014,
                    0.01815805956721306,
                    0.014831781387329102,
                    -0.03980092331767082
                ],
                [
                    0.021441642194986343,
                    0.04194158688187599,
                    0.023808840662240982,
                    -0.0403781421482563,
                    -0.04220119118690491
                ],
                [
                    0.01561681553721428,
                    0.0006220564246177673,
                    0.017865438014268875,
                    -0.023695431649684906,
                    -0.02084195986390114
                ],
                [
                    -0.03151115030050278,
                    0.001598544418811798,
                    0.03516295179724693,
                    -0.03700799122452736,
                    0.004155155271291733
                ],
                [
                    0.02879605069756508,
                    -0.018982190638780594,
                    -0.037411004304885864,
                    0.024784255772829056,
                    -0.006401348859071732
                ]
            ],
            [
                [
                    0.014119613915681839,
                    -0.010831136256456375,
                    -0.007652498781681061,
                    -0.026125026866793633,
                    0.002082783728837967
                ],
                [
                    -0.0419672355055809,
                    -0.037386320531368256,
                    -0.011983383446931839,
                    0.03410080447793007,
                    0.001786608248949051
                ],
                [
                    -0.008558470755815506,
                    0.02727806195616722,
                    -0.008687987923622131,
                    0.011548977345228195,
                    0.034317146986722946
                ],
                [
                    -0.025952903553843498,
                    -0.0034696198999881744,
                    -0.00016090646386146545,
                    0.03895815089344978,
                    -0.024320457130670547
                ],
                [
                    -0.018373815342783928,
                    -0.025611577555537224,
                    0.005627691745758057,
                    -0.0009401142597198486,
                    0.015451561659574509
                ]
            ],
            [
                [
                    -0.013751382008194923,
                    0.03907694295048714,
                    0.025844480842351913,
                    0.043074022978544235,
                    -0.005428079515695572
                ],
                [
                    0.01567365974187851,
                    0.0037942156195640564,
                    0.03346775099635124,
                    -0.0034170709550380707,
                    0.03252635523676872
                ],
                [
                    0.002491466701030731,
                    0.03335895761847496,
                    0.009546805173158646,
                    -0.026118868961930275,
                    -0.010868694633245468
                ],
                [
                    0.01472921296954155,
                    0.023871418088674545,
                    -0.021697644144296646,
                    -0.03157343342900276,
                    0.0036146193742752075
                ],
                [
                    -0.0220403503626585,
                    -0.03059586137533188,
                    -0.03292591869831085,
                    -0.0013376995921134949,
                    0.02960604801774025
                ]
            ],
            [
                [
                    -0.010009847581386566,
                    -0.04239759221673012,
                    -0.04339222237467766,
                    0.04126502946019173,
                    -0.03264230862259865
                ],
                [
                    -0.020276932045817375,
                    0.0015029869973659515,
                    0.041413310915231705,
                    0.0024413801729679108,
                    0.04230629280209541
                ],
                [
                    0.008349157869815826,
                    -0.018671328201889992,
                    0.0027947649359703064,
                    -0.028038155287504196,
                    0.0033291690051555634
                ],
                [
                    0.0242241732776165,
                    -0.01439083181321621,
                    0.028775151818990707,
                    -0.04470135271549225,
                    -0.0090433768928051
                ],
                [
                    0.005398739129304886,
                    0.04382653906941414,
                    -0.02770490199327469,
                    -0.0159095861017704,
                    -0.0018421076238155365
                ]
            ],
            [
                [
                    0.03200080618262291,
                    0.012829001992940903,
                    0.033099014312028885,
                    -0.028231175616383553,
                    0.00458405539393425
                ],
                [
                    -0.0423785075545311,
                    -0.03658846393227577,
                    0.02163485810160637,
                    -0.027647484093904495,
                    -0.02688351273536682
                ],
                [
                    -0.021645015105605125,
                    -0.006359618157148361,
                    0.03230024501681328,
                    -0.008281532675027847,
                    -0.002941235899925232
                ],
                [
                    0.02577316388487816,
                    0.024590041488409042,
                    0.038482051342725754,
                    -0.028714187443256378,
                    -0.043654389679431915
                ],
                [
                    0.006553512066602707,
                    -0.020334195345640182,
                    0.03269375488162041,
                    -0.04109019786119461,
                    0.032161448150873184
                ]
            ],
            [
                [
                    0.021314751356840134,
                    -0.0069068484008312225,
                    0.007138393819332123,
                    0.01081167533993721,
                    0.0032135508954524994
                ],
                [
                    0.02333589270710945,
                    -0.005798812955617905,
                    -0.027619261294603348,
                    -0.016807833686470985,
                    0.037429939955472946
                ],
                [
                    -0.02628142759203911,
                    0.02701670303940773,
                    0.012634530663490295,
                    0.013309307396411896,
                    0.012033320963382721
                ],
                [
                    0.0304354690015316,
                    0.0432230569422245,
                    -0.038945261389017105,
                    -0.024030935019254684,
                    -0.025139126926660538
                ],
                [
                    0.016149766743183136,
                    0.02799646183848381,
                    -0.043036870658397675,
                    -0.019968150183558464,
                    -0.012794233858585358
                ]
            ],
            [
                [
                    -0.03478764370083809,
                    -0.01622171141207218,
                    0.03315192088484764,
                    -0.002530336380004883,
                    -0.01863967813551426
                ],
                [
                    -0.017336508259177208,
                    0.017513401806354523,
                    0.007495306432247162,
                    0.031028423458337784,
                    0.028396841138601303
                ],
                [
                    0.03532818332314491,
                    0.03931218758225441,
                    0.003026053309440613,
                    0.04229941591620445,
                    0.006314355880022049
                ],
                [
                    0.020055126398801804,
                    0.002631165087223053,
                    -0.028054116293787956,
                    0.024942848831415176,
                    -0.012715186923742294
                ],
                [
                    -0.0025120526552200317,
                    -0.0416475273668766,
                    0.005810331553220749,
                    -0.03687328100204468,
                    -0.04064823314547539
                ]
            ],
            [
                [
                    -0.016670161858201027,
                    -0.020555391907691956,
                    -0.012837372720241547,
                    0.015083078294992447,
                    0.018134836107492447
                ],
                [
                    0.02450696751475334,
                    0.024093184620141983,
                    -0.021465439349412918,
                    0.022532764822244644,
                    0.023433413356542587
                ],
                [
                    0.017241526395082474,
                    -0.03260499984025955,
                    -0.01435190998017788,
                    -0.044129058718681335,
                    0.01847679540514946
                ],
                [
                    0.029062878340482712,
                    0.02571037784218788,
                    0.03119203820824623,
                    -0.030213892459869385,
                    -0.03365597128868103
                ],
                [
                    -0.03655140846967697,
                    0.003746356815099716,
                    0.026362698525190353,
                    -0.034589145332574844,
                    -0.018152065575122833
                ]
            ],
            [
                [
                    0.0030564405024051666,
                    -0.020534638315439224,
                    -0.0014947466552257538,
                    0.03661785647273064,
                    0.03731450065970421
                ],
                [
                    -0.012934152036905289,
                    0.03753966465592384,
                    -0.04256896302103996,
                    0.01062120869755745,
                    -0.034578077495098114
                ],
                [
                    -0.04440927132964134,
                    0.02484738454222679,
                    -0.0055759623646736145,
                    0.029236983507871628,
                    0.025451336055994034
                ],
                [
                    -0.02147137187421322,
                    0.020471733063459396,
                    -0.006609134376049042,
                    0.005746208131313324,
                    -0.005153197795152664
                ],
                [
                    -0.011507548391819,
                    0.015546910464763641,
                    -0.02427072823047638,
                    0.0035173073410987854,
                    -0.0021059103310108185
                ]
            ],
            [
                [
                    -0.03407097980380058,
                    -0.03929414600133896,
                    0.005840390920639038,
                    -0.013099949806928635,
                    0.04270176962018013
                ],
                [
                    0.018677692860364914,
                    0.0072494857013225555,
                    -0.0417691245675087,
                    -0.007993742823600769,
                    -0.021148808300495148
                ],
                [
                    0.014789927750825882,
                    0.01904195174574852,
                    -0.024677978828549385,
                    -0.017159992828965187,
                    0.027753811329603195
                ],
                [
                    -0.018116116523742676,
                    0.029212359338998795,
                    -0.0014804601669311523,
                    -0.03848088160157204,
                    0.0029767341911792755
                ],
                [
                    0.00379021093249321,
                    0.024547334760427475,
                    0.0051519498229026794,
                    -0.034600283950567245,
                    0.04006122425198555
                ]
            ],
            [
                [
                    0.020986784249544144,
                    -0.02861417457461357,
                    0.013514909893274307,
                    -0.031205300241708755,
                    0.0223999060690403
                ],
                [
                    -0.0391874760389328,
                    -0.03493236377835274,
                    0.001873791217803955,
                    0.006156161427497864,
                    0.04298372194170952
                ],
                [
                    0.040735986083745956,
                    -0.007650736719369888,
                    0.01787000522017479,
                    0.03720605745911598,
                    -0.03744705393910408
                ],
                [
                    0.025154266506433487,
                    -0.02742297574877739,
                    0.027556944638490677,
                    -0.03231678158044815,
                    -0.003026966005563736
                ],
                [
                    0.0033965185284614563,
                    0.0007752031087875366,
                    0.028164584189653397,
                    -0.024654002860188484,
                    0.022513497620821
                ]
            ],
            [
                [
                    0.02635975554585457,
                    0.03842921927571297,
                    0.03396300598978996,
                    0.004327517002820969,
                    0.019101213663816452
                ],
                [
                    -0.009044170379638672,
                    -0.038540616631507874,
                    -0.01702040061354637,
                    -0.026052303612232208,
                    -0.002143334597349167
                ],
                [
                    0.03128250315785408,
                    0.00676833838224411,
                    0.02106546238064766,
                    -0.02534201741218567,
                    -0.019856082275509834
                ],
                [
                    -0.00964287668466568,
                    -0.016424179077148438,
                    -0.00937207043170929,
                    -0.03874357044696808,
                    0.00908685103058815
                ],
                [
                    -0.014711979776620865,
                    0.02847219631075859,
                    0.03019827976822853,
                    0.018204163759946823,
                    0.026358146220445633
                ]
            ],
            [
                [
                    0.013354670256376266,
                    -0.036550287157297134,
                    0.010027658194303513,
                    -0.0344521664083004,
                    -0.008313193917274475
                ],
                [
                    -0.03706901893019676,
                    0.024037469178438187,
                    0.04134657606482506,
                    -0.03447183966636658,
                    -0.01099524274468422
                ],
                [
                    0.00277111679315567,
                    -0.04207557812333107,
                    0.009468663483858109,
                    0.020050901919603348,
                    -0.010742828249931335
                ],
                [
                    0.007120251655578613,
                    -0.01913166232407093,
                    0.015972524881362915,
                    0.026742342859506607,
                    0.020469460636377335
                ],
                [
                    -0.017665144056081772,
                    0.0007220692932605743,
                    -0.002041764557361603,
                    0.0402899794280529,
                    0.013469260185956955
                ]
            ],
            [
                [
                    0.025582220405340195,
                    0.004472952336072922,
                    -0.03353158384561539,
                    0.04051261022686958,
                    -0.03779398649930954
                ],
                [
                    -0.03691188246011734,
                    -0.03203343600034714,
                    0.013810191303491592,
                    0.00643882155418396,
                    -0.03254202753305435
                ],
                [
                    -0.039482686668634415,
                    0.006774246692657471,
                    0.027438197284936905,
                    0.0010212548077106476,
                    0.01571454480290413
                ],
                [
                    0.03734211251139641,
                    -0.01538330502808094,
                    0.01008870080113411,
                    0.034824419766664505,
                    0.02680164948105812
                ],
                [
                    0.006101641803979874,
                    0.012494776397943497,
                    0.023414243012666702,
                    -0.041304439306259155,
                    0.017087962478399277
                ]
            ],
            [
                [
                    -0.039267513900995255,
                    0.039048124104738235,
                    0.008407916873693466,
                    0.035557519644498825,
                    -0.03152273967862129
                ],
                [
                    -0.028661569580435753,
                    0.02238435670733452,
                    -0.02453230880200863,
                    -0.035884153097867966,
                    0.008357446640729904
                ],
                [
                    -0.04159288853406906,
                    -0.0013581439852714539,
                    -0.017692258581519127,
                    0.02343173697590828,
                    -0.008006151765584946
                ],
                [
                    -0.030696231871843338,
                    0.0009765438735485077,
                    0.01553911343216896,
                    0.014630474150180817,
                    -0.03145868331193924
                ],
                [
                    -0.035448528826236725,
                    0.032016027718782425,
                    -0.041839487850666046,
                    -0.02041821926832199,
                    -0.018337616696953773
                ]
            ],
            [
                [
                    -0.02070106752216816,
                    -0.024369899183511734,
                    0.021093901246786118,
                    0.001061808317899704,
                    0.04076024517416954
                ],
                [
                    0.01602778211236,
                    0.0384853295981884,
                    0.011434141546487808,
                    0.040576908737421036,
                    -0.03777027875185013
                ],
                [
                    -0.014942681416869164,
                    0.015635743737220764,
                    -0.034827589988708496,
                    0.003434929996728897,
                    0.016857877373695374
                ],
                [
                    -0.0026768185198307037,
                    -0.010630346834659576,
                    0.004763856530189514,
                    -0.01781722716987133,
                    -0.019856540486216545
                ],
                [
                    0.016807246953248978,
                    0.04439222440123558,
                    0.038547489792108536,
                    0.020997975021600723,
                    0.027167271822690964
                ]
            ],
            [
                [
                    -0.006707698106765747,
                    -0.03857049718499184,
                    0.004184279590845108,
                    -0.022141221910715103,
                    0.00038088858127593994
                ],
                [
                    -0.038061223924160004,
                    -0.004169132560491562,
                    -0.02188127301633358,
                    0.013858377933502197,
                    -0.036425407975912094
                ],
                [
                    -0.040381353348493576,
                    0.027589205652475357,
                    0.024851005524396896,
                    0.03690561279654503,
                    0.04055025801062584
                ],
                [
                    0.023068640381097794,
                    -0.00048807263374328613,
                    -0.023277822881937027,
                    -0.010287012904882431,
                    0.0031817667186260223
                ],
                [
                    0.026223991066217422,
                    0.0371292345225811,
                    -0.014485243707895279,
                    -0.027148142457008362,
                    0.03171901777386665
                ]
            ],
            [
                [
                    0.009404502809047699,
                    -0.04014603793621063,
                    0.02789093181490898,
                    0.024351369589567184,
                    0.004328764975070953
                ],
                [
                    -0.007821809500455856,
                    -0.012502513825893402,
                    0.01451471820473671,
                    0.03296126052737236,
                    -0.00117434561252594
                ],
                [
                    -0.03591267764568329,
                    -0.013734636828303337,
                    0.010697372257709503,
                    -0.02655051462352276,
                    -0.04400454834103584
                ],
                [
                    0.007112741470336914,
                    0.0212385393679142,
                    -0.00889669731259346,
                    0.04061209037899971,
                    -0.021293053403496742
                ],
                [
                    -0.006995886564254761,
                    -0.005776416510343552,
                    -0.006277482956647873,
                    -0.020661471411585808,
                    0.043513644486665726
                ]
            ],
            [
                [
                    -0.0029582679271698,
                    0.020198684185743332,
                    0.032917220145463943,
                    0.0441194511950016,
                    0.016437865793704987
                ],
                [
                    -0.04006548970937729,
                    0.03930031135678291,
                    0.041745033115148544,
                    0.028206970542669296,
                    -0.03258628398180008
                ],
                [
                    0.027054395526647568,
                    0.009529199451208115,
                    0.013285413384437561,
                    -0.03119869902729988,
                    -0.006729666143655777
                ],
                [
                    -0.023271670565009117,
                    0.0031195245683193207,
                    -0.011264331638813019,
                    0.02741045132279396,
                    -0.0188851747661829
                ],
                [
                    0.0029132291674613953,
                    0.043651316314935684,
                    -0.022503700107336044,
                    -0.005485858768224716,
                    0.027609411627054214
                ]
            ]
        ],
        [
            [
                [
                    -0.01108371838927269,
                    0.03003087267279625,
                    0.03595385327935219,
                    0.024014484137296677,
                    0.019967589527368546
                ],
                [
                    0.01675446331501007,
                    -0.032232195138931274,
                    0.01049107313156128,
                    0.01513877883553505,
                    0.015120193362236023
                ],
                [
                    -0.024023903533816338,
                    -0.02882004901766777,
                    -0.013334032148122787,
                    -0.018128015100955963,
                    0.035340871661901474
                ],
                [
                    0.012874554842710495,
                    0.0303507037460804,
                    0.03892302140593529,
                    -0.00766453891992569,
                    -0.044462788850069046
                ],
                [
                    0.0229494608938694,
                    0.02193700149655342,
                    -0.002793639898300171,
                    -0.009121231734752655,
                    0.029639769345521927
                ]
            ],
            [
                [
                    -0.002178773283958435,
                    -0.043891411274671555,
                    0.040230173617601395,
                    0.023220669478178024,
                    -0.0163002610206604
                ],
                [
                    0.009476322680711746,
                    0.04113033041357994,
                    0.014822792261838913,
                    -0.005220543593168259,
                    -0.02624797448515892
                ],
                [
                    0.013586722314357758,
                    0.01549425721168518,
                    -0.012052811682224274,
                    -0.031830303370952606,
                    0.03601537272334099
                ],
                [
                    0.021940458565950394,
                    -0.017740607261657715,
                    0.004217818379402161,
                    -0.044240161776542664,
                    0.03205352649092674
                ],
                [
                    -0.00619351863861084,
                    0.007945500314235687,
                    0.030504178255796432,
                    0.011012982577085495,
                    0.040472742170095444
                ]
            ],
            [
                [
                    -0.016884097829461098,
                    -0.03164782002568245,
                    -0.044399943202733994,
                    -0.02376122958958149,
                    0.04398554936051369
                ],
                [
                    0.033302467316389084,
                    0.01285388320684433,
                    -0.01600220985710621,
                    -0.003520660102367401,
                    0.019166801124811172
                ],
                [
                    0.034212466329336166,
                    -0.02232564426958561,
                    -0.035703953355550766,
                    -0.0391777865588665,
                    -0.011290591210126877
                ],
                [
                    0.018085483461618423,
                    -0.020236138254404068,
                    -0.030416233465075493,
                    0.02707866206765175,
                    0.02761119231581688
                ],
                [
                    0.04109841212630272,
                    0.037408117204904556,
                    0.043902065604925156,
                    0.009076852351427078,
                    -0.014243926852941513
                ]
            ],
            [
                [
                    0.01902555301785469,
                    0.007759056985378265,
                    0.03671329841017723,
                    0.028208952397108078,
                    0.04043176397681236
                ],
                [
                    -0.03905710205435753,
                    0.030480455607175827,
                    0.02840714529156685,
                    -0.00789044052362442,
                    0.026410255581140518
                ],
                [
                    0.036376070231199265,
                    -0.0037478767335414886,
                    -0.0288409274071455,
                    -0.03283253684639931,
                    0.03637367859482765
                ],
                [
                    -0.03335960581898689,
                    -0.009485647082328796,
                    -0.03430572897195816,
                    -0.012736916542053223,
                    -0.027308622375130653
                ],
                [
                    0.006768189370632172,
                    -0.03937754034996033,
                    -0.03172712028026581,
                    -0.03214801102876663,
                    0.04029170051217079
                ]
            ],
            [
                [
                    0.015322759747505188,
                    -0.00040473416447639465,
                    -0.03701389953494072,
                    0.038895200937986374,
                    -0.008588097989559174
                ],
                [
                    0.04364829137921333,
                    0.023881610482931137,
                    0.033199992030858994,
                    0.008691783994436264,
                    0.0236675925552845
                ],
                [
                    -0.03211614117026329,
                    -0.02703043445944786,
                    -0.003814462572336197,
                    -0.04273907095193863,
                    0.03420718386769295
                ],
                [
                    0.014150463044643402,
                    0.018843967467546463,
                    -0.014974668622016907,
                    -0.023341121152043343,
                    0.012928906828165054
                ],
                [
                    -0.004620302468538284,
                    -0.03103671595454216,
                    -0.024446630850434303,
                    -0.032589979469776154,
                    0.01748819276690483
                ]
            ],
            [
                [
                    0.022690940648317337,
                    -0.0401373915374279,
                    0.010153152048587799,
                    -0.004594605416059494,
                    -0.038875479251146317
                ],
                [
                    -0.0261392705142498,
                    -0.013670625165104866,
                    -0.025104735046625137,
                    0.03913002088665962,
                    0.03376142308115959
                ],
                [
                    0.00032038241624832153,
                    0.009940393269062042,
                    -0.014126379042863846,
                    0.005866039544343948,
                    -0.038170333951711655
                ],
                [
                    0.0031246133148670197,
                    -0.005526185035705566,
                    0.0207032673060894,
                    0.01140570268034935,
                    -0.026271335780620575
                ],
                [
                    -0.033091120421886444,
                    0.025386136025190353,
                    0.0010397247970104218,
                    -0.02995331399142742,
                    -0.01329614594578743
                ]
            ],
            [
                [
                    0.03637583181262016,
                    -0.03371499851346016,
                    0.026935528963804245,
                    -0.034644585102796555,
                    -0.04239592328667641
                ],
                [
                    -0.001430552452802658,
                    -0.03064124658703804,
                    -0.03466108441352844,
                    0.03753363713622093,
                    -0.0182353425770998
                ],
                [
                    -0.02098757028579712,
                    -0.033205486834049225,
                    -0.01748407632112503,
                    0.03147394582629204,
                    0.03502630069851875
                ],
                [
                    -0.04208223521709442,
                    -0.0445580817759037,
                    -0.027925293892621994,
                    0.03174011781811714,
                    0.025701802223920822
                ],
                [
                    0.023722995072603226,
                    0.014583650976419449,
                    -0.010538369417190552,
                    0.016557879745960236,
                    0.017579317092895508
                ]
            ],
            [
                [
                    0.005561936646699905,
                    0.013955853879451752,
                    0.001767810434103012,
                    0.018005263060331345,
                    -0.035736359655857086
                ],
                [
                    -0.02708452008664608,
                    -0.04221338406205177,
                    0.038897816091775894,
                    -0.0005028024315834045,
                    -0.0037597976624965668
                ],
                [
                    0.01932365819811821,
                    0.03270706161856651,
                    0.017701685428619385,
                    -0.010393794625997543,
                    0.023398298770189285
                ],
                [
                    0.0074344202876091,
                    0.034661080688238144,
                    -0.04115213826298714,
                    0.025893259793519974,
                    -0.00847717747092247
                ],
                [
                    -0.005483720451593399,
                    -0.009426597505807877,
                    -0.038830921053886414,
                    0.01888388767838478,
                    0.03983212634921074
                ]
            ],
            [
                [
                    0.010488513857126236,
                    0.03639112040400505,
                    0.03758183494210243,
                    0.03579992428421974,
                    -0.006179288029670715
                ],
                [
                    0.03544185683131218,
                    0.033963892608881,
                    -0.017837587743997574,
                    0.01333211362361908,
                    0.019011463969945908
                ],
                [
                    0.0031567923724651337,
                    -0.0046476200222969055,
                    -0.019326848909258842,
                    0.008382312953472137,
                    -0.021072689443826675
                ],
                [
                    -0.041267748922109604,
                    -0.032509274780750275,
                    0.008142344653606415,
                    -0.015449076890945435,
                    0.03513852879405022
                ],
                [
                    -0.04016442596912384,
                    0.009574752300977707,
                    -0.013776753097772598,
                    -0.03465710207819939,
                    -0.037529896944761276
                ]
            ],
            [
                [
                    0.03686082735657692,
                    -0.018058085814118385,
                    0.02409229800105095,
                    0.01354658231139183,
                    0.029022883623838425
                ],
                [
                    0.01264864206314087,
                    0.007372051477432251,
                    -0.025145038962364197,
                    0.03707561269402504,
                    0.004767097532749176
                ],
                [
                    -0.02098514512181282,
                    -0.005131836980581284,
                    0.0003328360617160797,
                    -0.011584356427192688,
                    -0.0026839524507522583
                ],
                [
                    0.02854657545685768,
                    0.03734464570879936,
                    -0.029485665261745453,
                    -0.0096711665391922,
                    0.0017659924924373627
                ],
                [
                    0.0013176687061786652,
                    0.010133687406778336,
                    0.03847065195441246,
                    0.033021893352270126,
                    -0.042757876217365265
                ]
            ],
            [
                [
                    -0.03906651958823204,
                    0.03611447289586067,
                    0.01738922670483589,
                    -0.03830152750015259,
                    -0.01392706111073494
                ],
                [
                    0.015193253755569458,
                    0.023135755211114883,
                    -0.014167295768857002,
                    0.0325218103826046,
                    7.209926843643188e-05
                ],
                [
                    0.03442547097802162,
                    0.04239891096949577,
                    -0.019711483269929886,
                    -0.02561885491013527,
                    0.022191297262907028
                ],
                [
                    0.01220279186964035,
                    0.01478862389922142,
                    0.0037203729152679443,
                    0.03751888498663902,
                    -0.011048786342144012
                ],
                [
                    0.023469816893339157,
                    0.03456864878535271,
                    -0.03729318827390671,
                    0.024715889245271683,
                    -0.0381925143301487
                ]
            ],
            [
                [
                    -0.02130233123898506,
                    0.02319234237074852,
                    -0.03291913494467735,
                    0.029127370566129684,
                    -0.021923698484897614
                ],
                [
                    0.03343171253800392,
                    0.023350495845079422,
                    0.02775787189602852,
                    -0.020565861836075783,
                    0.034519415348768234
                ],
                [
                    0.03146302327513695,
                    0.03305935487151146,
                    -0.01878245174884796,
                    -0.03909548744559288,
                    -0.03638189658522606
                ],
                [
                    0.012432590126991272,
                    0.02307317778468132,
                    0.035456348210573196,
                    -0.006303705275058746,
                    -0.0418674498796463
                ],
                [
                    0.03546949103474617,
                    0.011202294379472733,
                    -0.0067924633622169495,
                    -0.03191858157515526,
                    0.033201854676008224
                ]
            ],
            [
                [
                    -0.005830362439155579,
                    -0.040299054235219955,
                    0.0006055757403373718,
                    0.02266312763094902,
                    0.011782247573137283
                ],
                [
                    0.005613252520561218,
                    -0.03241690620779991,
                    0.02250165119767189,
                    0.042773086577653885,
                    0.02830469235777855
                ],
                [
                    -0.005726434290409088,
                    -0.042991530150175095,
                    -0.01767709106206894,
                    0.027539540082216263,
                    -0.01689770258963108
                ],
                [
                    0.017018668353557587,
                    -0.018559027463197708,
                    -0.018456120043992996,
                    0.03269660845398903,
                    0.017123714089393616
                ],
                [
                    0.0038572214543819427,
                    0.04448521509766579,
                    0.031722333282232285,
                    -0.017843153327703476,
                    -0.015266098082065582
                ]
            ],
            [
                [
                    -0.034764014184474945,
                    -0.016565270721912384,
                    0.037518713623285294,
                    0.037490252405405045,
                    0.0043818168342113495
                ],
                [
                    -0.00021563470363616943,
                    0.027302201837301254,
                    0.02912634238600731,
                    0.033783573657274246,
                    0.021920014172792435
                ],
                [
                    -0.04276610165834427,
                    0.03197599574923515,
                    -0.00508507713675499,
                    0.027686957269906998,
                    -0.030438564717769623
                ],
                [
                    0.043146561831235886,
                    0.030788559466600418,
                    -0.024192674085497856,
                    -0.02038169652223587,
                    -0.03632286190986633
                ],
                [
                    -0.006839372217655182,
                    0.0013712383806705475,
                    0.02598464861512184,
                    0.007967658340930939,
                    -0.028153181076049805
                ]
            ],
            [
                [
                    -0.04022239148616791,
                    0.003392312675714493,
                    -0.040534693747758865,
                    0.03267038241028786,
                    -0.03295654430985451
                ],
                [
                    -0.00571933388710022,
                    -0.03658425062894821,
                    -0.03535376861691475,
                    -0.01734142377972603,
                    -0.007930915802717209
                ],
                [
                    -0.011492222547531128,
                    -0.002278614789247513,
                    -0.03240253031253815,
                    -0.03197108209133148,
                    -0.008335035294294357
                ],
                [
                    -0.006089113652706146,
                    0.03862475976347923,
                    -0.030113302171230316,
                    -0.04369714856147766,
                    0.023432578891515732
                ],
                [
                    0.017048917710781097,
                    0.02699282392859459,
                    -0.006093744188547134,
                    -0.03529970347881317,
                    0.009977024048566818
                ]
            ],
            [
                [
                    0.01335136592388153,
                    0.011971022933721542,
                    -0.04017368704080582,
                    -0.03138852119445801,
                    0.024949301034212112
                ],
                [
                    -0.02377086877822876,
                    -0.04351966083049774,
                    -0.019992923364043236,
                    -0.029224330559372902,
                    0.010933514684438705
                ],
                [
                    -0.043415408581495285,
                    -0.014055164530873299,
                    -0.008527450263500214,
                    -0.030185915529727936,
                    -0.015017462894320488
                ],
                [
                    0.028776157647371292,
                    -0.04284611716866493,
                    -0.03559429571032524,
                    -0.04124535992741585,
                    -0.026370495557785034
                ],
                [
                    -0.016779445111751556,
                    -0.03488803654909134,
                    -0.006822120398283005,
                    -0.008623175323009491,
                    0.017740782350301743
                ]
            ],
            [
                [
                    0.01944706216454506,
                    0.0386187918484211,
                    -0.03396912291646004,
                    0.003656446933746338,
                    -0.02514312043786049
                ],
                [
                    -0.018066653981804848,
                    -0.04220538213849068,
                    -0.0012601912021636963,
                    0.010582346469163895,
                    -0.02874475158751011
                ],
                [
                    0.023960944265127182,
                    -0.010261140763759613,
                    0.034000370651483536,
                    0.022752705961465836,
                    0.003913726657629013
                ],
                [
                    0.035891104489564896,
                    -0.013237208127975464,
                    0.006432272493839264,
                    -0.03524138778448105,
                    -0.0071851760149002075
                ],
                [
                    -0.017144296318292618,
                    0.04437076672911644,
                    -0.03910524398088455,
                    0.019473496824502945,
                    0.013128820806741714
                ]
            ],
            [
                [
                    -0.03861374035477638,
                    0.01787562295794487,
                    -0.01558598130941391,
                    -0.005524832755327225,
                    -0.012539204210042953
                ],
                [
                    0.03309127315878868,
                    0.02575812116265297,
                    -0.030864182859659195,
                    -0.04054062068462372,
                    -0.01543695293366909
                ],
                [
                    0.034529391676187515,
                    -0.04435800388455391,
                    -0.03588492423295975,
                    0.022208865731954575,
                    -0.029989561066031456
                ],
                [
                    0.04093879088759422,
                    0.04235203191637993,
                    0.032271113246679306,
                    0.017984982579946518,
                    -0.0328289158642292
                ],
                [
                    -0.021135959774255753,
                    0.01651129499077797,
                    0.02003466710448265,
                    -0.035494111478328705,
                    0.04335615411400795
                ]
            ],
            [
                [
                    0.03423571214079857,
                    -0.010418921709060669,
                    0.00023376941680908203,
                    -0.008076269179582596,
                    -0.023072417825460434
                ],
                [
                    0.02158982679247856,
                    0.028850246220827103,
                    0.007540963590145111,
                    -0.005339320749044418,
                    -0.0026247836649417877
                ],
                [
                    -0.01333698257803917,
                    0.03045782819390297,
                    -0.03028976172208786,
                    -0.028183722868561745,
                    -0.03974592685699463
                ],
                [
                    -0.03753583878278732,
                    0.005745649337768555,
                    -0.029086759313941002,
                    0.017063859850168228,
                    -0.028436273336410522
                ],
                [
                    -0.041996683925390244,
                    -0.027620507404208183,
                    0.044395048171281815,
                    -0.03136337548494339,
                    -0.029168758541345596
                ]
            ],
            [
                [
                    -0.033033110201358795,
                    -0.01577869988977909,
                    -0.01587834395468235,
                    0.01602949947118759,
                    -0.0412435308098793
                ],
                [
                    0.020535793155431747,
                    -0.009867008775472641,
                    -0.0040986500680446625,
                    -0.038992803543806076,
                    -0.0029698535799980164
                ],
                [
                    0.012348935008049011,
                    -0.03671630099415779,
                    -0.039105869829654694,
                    -0.005269326269626617,
                    0.033384282141923904
                ],
                [
                    -0.03536372631788254,
                    0.02413545921444893,
                    -0.011014599353075027,
                    0.00962025299668312,
                    0.00938383862376213
                ],
                [
                    -0.006196398288011551,
                    0.014404386281967163,
                    0.0432375930249691,
                    -0.02720901370048523,
                    0.02957669273018837
                ]
            ]
        ],
        [
            [
                [
                    0.020328309386968613,
                    -0.011470671743154526,
                    -0.031523119658231735,
                    -0.0012315325438976288,
                    -0.016159074380993843
                ],
                [
                    -0.03323362022638321,
                    0.031467992812395096,
                    0.0220615454018116,
                    -0.006447378545999527,
                    0.03391421213746071
                ],
                [
                    0.04216117784380913,
                    0.032894063740968704,
                    0.027300406247377396,
                    0.02827383205294609,
                    -0.016910694539546967
                ],
                [
                    -0.026213806122541428,
                    0.035102684050798416,
                    0.040756065398454666,
                    0.03960210457444191,
                    0.033237274736166
                ],
                [
                    -0.010102421045303345,
                    -0.03983447700738907,
                    -0.008989788591861725,
                    0.042885903269052505,
                    0.016374800354242325
                ]
            ],
            [
                [
                    -0.03917693346738815,
                    -0.02279115840792656,
                    -0.013206027448177338,
                    0.02807733044028282,
                    -0.03700517117977142
                ],
                [
                    0.042674969881772995,
                    0.02522611990571022,
                    0.017716415226459503,
                    0.031502995640039444,
                    -0.03006707690656185
                ],
                [
                    -0.026785315945744514,
                    0.007104083895683289,
                    0.002944592386484146,
                    -0.02227114886045456,
                    0.028399351984262466
                ],
                [
                    0.03238246217370033,
                    -0.007719069719314575,
                    -0.002347055822610855,
                    0.040379513055086136,
                    0.007865510880947113
                ],
                [
                    -0.013756558299064636,
                    0.0227031446993351,
                    0.004426047205924988,
                    -0.04348134621977806,
                    0.034866418689489365
                ]
            ],
            [
                [
                    -0.024776600301265717,
                    0.0256650410592556,
                    -0.006817743182182312,
                    0.0022149235010147095,
                    -0.026364034041762352
                ],
                [
                    -0.01727781631052494,
                    0.03620682284235954,
                    0.037719231098890305,
                    -0.03736814111471176,
                    0.03957848623394966
                ],
                [
                    -0.0011747926473617554,
                    0.015294890850782394,
                    0.03506503626704216,
                    0.04164588823914528,
                    0.04304853454232216
                ],
                [
                    0.03715427592396736,
                    -0.017926117405295372,
                    0.022540036588907242,
                    0.03740506246685982,
                    -0.014656869694590569
                ],
                [
                    -0.02251862734556198,
                    -0.03906361386179924,
                    -0.0311160609126091,
                    0.002222605049610138,
                    0.007930032908916473
                ]
            ],
            [
                [
                    0.01563854143023491,
                    0.02913292869925499,
                    0.00738951563835144,
                    -0.005292225629091263,
                    0.04314469173550606
                ],
                [
                    0.01885576918721199,
                    -0.011982172727584839,
                    -0.006801985204219818,
                    -0.022098513320088387,
                    -0.04283341392874718
                ],
                [
                    0.016966555267572403,
                    -0.003910750150680542,
                    -0.000722791999578476,
                    -0.03529375046491623,
                    -0.01178683340549469
                ],
                [
                    0.03472435846924782,
                    -0.009987041354179382,
                    0.032719437032938004,
                    -0.017760610207915306,
                    0.022374290972948074
                ],
                [
                    -0.02210208587348461,
                    -0.014202427119016647,
                    -0.02061380073428154,
                    -0.03881726786494255,
                    0.03950432315468788
                ]
            ],
            [
                [
                    0.029350552707910538,
                    0.003703128546476364,
                    -0.03599777817726135,
                    -0.011138256639242172,
                    0.019705485552549362
                ],
                [
                    0.032841313630342484,
                    -0.030601710081100464,
                    0.012423790991306305,
                    0.040019791573286057,
                    0.017836224287748337
                ],
                [
                    0.004613567143678665,
                    -0.040599286556243896,
                    -0.0315396822988987,
                    -0.04264632612466812,
                    -0.007592704147100449
                ],
                [
                    0.024620238691568375,
                    0.01746339723467827,
                    -0.006118860095739365,
                    0.006569318473339081,
                    -0.005036931484937668
                ],
                [
                    -0.004884190857410431,
                    0.031713660806417465,
                    -0.031533293426036835,
                    -0.03473484143614769,
                    0.02040013298392296
                ]
            ],
            [
                [
                    0.04469650611281395,
                    -0.005490988492965698,
                    -0.04018199071288109,
                    0.017332948744297028,
                    -0.02161772921681404
                ],
                [
                    0.029560040682554245,
                    -0.025857575237751007,
                    0.018004637211561203,
                    0.024087999016046524,
                    0.02206900343298912
                ],
                [
                    0.04093828424811363,
                    -0.039333440363407135,
                    0.042413126677274704,
                    0.014226488769054413,
                    0.013757463544607162
                ],
                [
                    0.026238489896059036,
                    -0.008191864937543869,
                    -0.029197324067354202,
                    -0.031139571219682693,
                    -0.04401816427707672
                ],
                [
                    0.0004975497722625732,
                    0.041684266179800034,
                    -0.006743147969245911,
                    0.01473534107208252,
                    -0.009783346205949783
                ]
            ],
            [
                [
                    -0.002229902893304825,
                    0.03265656158328056,
                    0.03639393672347069,
                    -0.035006821155548096,
                    0.011246368288993835
                ],
                [
                    0.029854964464902878,
                    -0.019934147596359253,
                    -0.0069511570036411285,
                    0.007193967700004578,
                    0.0352749340236187
                ],
                [
                    0.02088632807135582,
                    0.030012574046850204,
                    -0.016026029363274574,
                    -0.022790076211094856,
                    -0.030896015465259552
                ],
                [
                    -0.03949778527021408,
                    0.01605398580431938,
                    0.006565801799297333,
                    -0.002828143537044525,
                    -0.04043589159846306
                ],
                [
                    -0.009298019111156464,
                    -0.03195817023515701,
                    0.011660091578960419,
                    0.006289955228567123,
                    0.020588334649801254
                ]
            ],
            [
                [
                    -0.020417489111423492,
                    -0.04047650471329689,
                    -0.007458776235580444,
                    -0.03987450897693634,
                    0.01789119467139244
                ],
                [
                    0.012962833046913147,
                    -0.03456132858991623,
                    0.04431524500250816,
                    0.030842337757349014,
                    -0.04172159731388092
                ],
                [
                    -0.024076197296380997,
                    -0.022557897493243217,
                    0.005318824201822281,
                    0.019405614584684372,
                    0.03737876936793327
                ],
                [
                    -0.010599400848150253,
                    -0.011135563254356384,
                    0.003021933138370514,
                    -0.01040896400809288,
                    -0.015720417723059654
                ],
                [
                    0.017112895846366882,
                    0.03295315429568291,
                    0.011146295815706253,
                    -0.006204485893249512,
                    -0.02368062175810337
                ]
            ],
            [
                [
                    0.020663369446992874,
                    0.017897333949804306,
                    -0.03507820889353752,
                    -0.021760404109954834,
                    0.03617074713110924
                ],
                [
                    0.04167674854397774,
                    -0.028758933767676353,
                    -0.020328208804130554,
                    -0.009799916297197342,
                    0.03015056625008583
                ],
                [
                    -0.00152607262134552,
                    -0.02967279776930809,
                    0.019111517816781998,
                    0.0026263371109962463,
                    0.023100797086954117
                ],
                [
                    0.005945809185504913,
                    -0.03189060837030411,
                    -0.017670417204499245,
                    0.03677443042397499,
                    -0.014913657680153847
                ],
                [
                    -0.0066148340702056885,
                    0.039038266986608505,
                    0.039523858577013016,
                    -0.006276190280914307,
                    0.023211468011140823
                ]
            ],
            [
                [
                    0.024920839816331863,
                    -0.025278596207499504,
                    0.0019714832305908203,
                    0.021303590387105942,
                    0.028546568006277084
                ],
                [
                    0.036758359521627426,
                    -0.022165723145008087,
                    -0.00042313337326049805,
                    -0.01686674915254116,
                    0.02570946142077446
                ],
                [
                    0.0052717700600624084,
                    -0.019147075712680817,
                    0.02781664952635765,
                    -0.009184140712022781,
                    0.014820821583271027
                ],
                [
                    -0.027804316952824593,
                    0.04094848409295082,
                    -0.03626784682273865,
                    -0.03359454125165939,
                    -0.01632896438241005
                ],
                [
                    -0.02634880319237709,
                    0.03426601365208626,
                    -0.009348001331090927,
                    0.0424409843981266,
                    -0.01671357825398445
                ]
            ],
            [
                [
                    -0.021518174558877945,
                    -0.007532764226198196,
                    0.004184190183877945,
                    0.028709199279546738,
                    -0.029277445748448372
                ],
                [
                    -0.025818364694714546,
                    0.008841101080179214,
                    -0.015704968944191933,
                    0.013244997709989548,
                    0.006892107427120209
                ],
                [
                    -0.011212162673473358,
                    0.004687074571847916,
                    0.019148048013448715,
                    0.026632774621248245,
                    0.037246089428663254
                ],
                [
                    -0.03978409245610237,
                    -0.04230897128582001,
                    0.02088743820786476,
                    0.009246323257684708,
                    0.03912993147969246
                ],
                [
                    -0.003981500864028931,
                    0.03179098293185234,
                    -0.03810051083564758,
                    -0.04354659840464592,
                    0.01076444610953331
                ]
            ],
            [
                [
                    0.02716362103819847,
                    0.04271339252591133,
                    0.02520677074790001,
                    0.006321519613265991,
                    0.015001986175775528
                ],
                [
                    -0.02203384041786194,
                    0.02963923290371895,
                    -0.013468410819768906,
                    0.03575317934155464,
                    -0.03920881822705269
                ],
                [
                    -0.013847524300217628,
                    0.03356826677918434,
                    -0.03886016830801964,
                    -0.005028855055570602,
                    0.01334545761346817
                ],
                [
                    -0.022427652031183243,
                    0.0378975011408329,
                    -0.022411545738577843,
                    -0.024964263662695885,
                    0.04339497908949852
                ],
                [
                    -0.02510903775691986,
                    0.024724628776311874,
                    -0.013967817649245262,
                    -0.03421288728713989,
                    0.03096272423863411
                ]
            ],
            [
                [
                    0.02715883031487465,
                    0.025872666388750076,
                    -0.014195572584867477,
                    0.0055841729044914246,
                    -0.02077370509505272
                ],
                [
                    -0.005192410200834274,
                    0.029426436871290207,
                    0.014484468847513199,
                    -0.019924577325582504,
                    0.016326680779457092
                ],
                [
                    0.019256118685007095,
                    -0.028565891087055206,
                    -0.026250330731272697,
                    -0.02177608199417591,
                    0.04428686574101448
                ],
                [
                    0.025806989520788193,
                    0.04090864583849907,
                    -0.033715132623910904,
                    -0.023524727672338486,
                    -0.04316396266222
                ],
                [
                    -0.034796811640262604,
                    0.020289365202188492,
                    -0.001525145024061203,
                    0.0034036636352539062,
                    0.0428820364177227
                ]
            ],
            [
                [
                    -0.04385148361325264,
                    0.04068676009774208,
                    -0.025599123910069466,
                    -0.005778592079877853,
                    0.03425382450222969
                ],
                [
                    0.03915342316031456,
                    0.015061631798744202,
                    -0.0077116116881370544,
                    -0.013864483684301376,
                    -0.01650247350335121
                ],
                [
                    0.028509225696325302,
                    0.039142075926065445,
                    0.022837165743112564,
                    0.012940943241119385,
                    -0.008561607450246811
                ],
                [
                    -0.00715159997344017,
                    0.03016507253050804,
                    -0.04237429425120354,
                    0.021822642534971237,
                    0.02397068962454796
                ],
                [
                    -0.027997611090540886,
                    0.03813650831580162,
                    0.01906416192650795,
                    0.028576407581567764,
                    -0.038458552211523056
                ]
            ],
            [
                [
                    0.041040580719709396,
                    -0.009455136954784393,
                    0.03854780271649361,
                    -0.026720255613327026,
                    0.03708343580365181
                ],
                [
                    0.0244959257543087,
                    -0.0017763935029506683,
                    0.04366271570324898,
                    0.0056919679045677185,
                    0.0016650557518005371
                ],
                [
                    0.009470582008361816,
                    -0.01791943795979023,
                    0.035350266844034195,
                    0.008283473551273346,
                    -0.006937574595212936
                ],
                [
                    0.006597734987735748,
                    0.03511716052889824,
                    0.01598149910569191,
                    0.02533983811736107,
                    0.044003117829561234
                ],
                [
                    0.021988335996866226,
                    0.008521493524312973,
                    -0.03607475012540817,
                    0.0077721551060676575,
                    0.037253472954034805
                ]
            ],
            [
                [
                    -0.0008145980536937714,
                    -0.006283283233642578,
                    0.00796075165271759,
                    -0.04433434084057808,
                    0.0002772212028503418
                ],
                [
                    -0.0009263753890991211,
                    -0.01164301484823227,
                    0.005676530301570892,
                    -0.027694515883922577,
                    -0.03517669439315796
                ],
                [
                    -0.005933951586484909,
                    0.03884033486247063,
                    0.02013346180319786,
                    0.04352587088942528,
                    -0.017152603715658188
                ],
                [
                    -0.036335013806819916,
                    -0.025363031774759293,
                    0.005060221999883652,
                    0.01721111312508583,
                    -0.018626557663083076
                ],
                [
                    -0.03930392861366272,
                    -0.03654509037733078,
                    0.024114739149808884,
                    -0.03940367326140404,
                    -0.04155629128217697
                ]
            ],
            [
                [
                    -0.022137222811579704,
                    0.01212162896990776,
                    -0.025926338508725166,
                    -0.031904641538858414,
                    0.018782328814268112
                ],
                [
                    0.0418032668530941,
                    -0.015896715223789215,
                    0.0007479637861251831,
                    -0.009410936385393143,
                    0.03703058883547783
                ],
                [
                    -0.017717812210321426,
                    -0.03508846089243889,
                    -0.016612302511930466,
                    -0.031133834272623062,
                    0.013603787869215012
                ],
                [
                    0.009558536112308502,
                    -0.00036466121673583984,
                    -0.004078954458236694,
                    -0.03337566927075386,
                    0.013875983655452728
                ],
                [
                    0.012594807893037796,
                    -0.010796457529067993,
                    0.02054133638739586,
                    0.03828589245676994,
                    -0.025754859670996666
                ]
            ],
            [
                [
                    0.044037964195013046,
                    -0.01488121785223484,
                    0.005842689424753189,
                    0.017469298094511032,
